digraph Tree {
node [shape=box, style="filled, rounded", color="black", fontname=helvetica] ;
edge [fontname=helvetica] ;
0 [label="account_status <= 13.5\nentropy = 1.0\nsamples = 668\nvalue = [519, 529]\nclass = o", fillcolor="#fbfdff"] ;
1 [label="credit_history <= 31.5\nentropy = 0.96\nsamples = 452\nvalue = [438, 264]\nclass = g", fillcolor="#f5cdb0"] ;
0 -> 1 [labeldistance=2.5, labelangle=45, headlabel="True"] ;
2 [label="account_status <= 11.5\nentropy = 0.48\nsamples = 57\nvalue = [78, 9]\nclass = g", fillcolor="#e89050"] ;
1 -> 2 ;
3 [label="purpose <= 46.5\nentropy = 0.15\nsamples = 29\nvalue = [44, 1]\nclass = g", fillcolor="#e6843d"] ;
2 -> 3 ;
4 [label="entropy = 0.0\nsamples = 25\nvalue = [39, 0]\nclass = g", fillcolor="#e58139"] ;
3 -> 4 ;
5 [label="job <= 172.5\nentropy = 0.65\nsamples = 4\nvalue = [5, 1]\nclass = g", fillcolor="#ea9a61"] ;
3 -> 5 ;
6 [label="entropy = 0.0\nsamples = 1\nvalue = [0, 1]\nclass = o", fillcolor="#399de5"] ;
5 -> 6 ;
7 [label="entropy = 0.0\nsamples = 3\nvalue = [5, 0]\nclass = g", fillcolor="#e58139"] ;
5 -> 7 ;
8 [label="savings_account <= 63.0\nentropy = 0.7\nsamples = 28\nvalue = [34, 8]\nclass = g", fillcolor="#eb9f68"] ;
2 -> 8 ;
9 [label="age <= 33.5\nentropy = 0.55\nsamples = 25\nvalue = [34, 5]\nclass = g", fillcolor="#e99456"] ;
8 -> 9 ;
10 [label="unemployed <= 72.5\nentropy = 0.79\nsamples = 12\nvalue = [16, 5]\nclass = g", fillcolor="#eda877"] ;
9 -> 10 ;
11 [label="entropy = 0.0\nsamples = 5\nvalue = [10, 0]\nclass = g", fillcolor="#e58139"] ;
10 -> 11 ;
12 [label="purpose <= 46.0\nentropy = 0.99\nsamples = 7\nvalue = [6, 5]\nclass = g", fillcolor="#fbeade"] ;
10 -> 12 ;
13 [label="entropy = 0.0\nsamples = 2\nvalue = [0, 2]\nclass = o", fillcolor="#399de5"] ;
12 -> 13 ;
14 [label="unemployed <= 73.5\nentropy = 0.92\nsamples = 5\nvalue = [6, 3]\nclass = g", fillcolor="#f2c09c"] ;
12 -> 14 ;
15 [label="present_residence_since <= 1.5\nentropy = 0.81\nsamples = 4\nvalue = [6, 2]\nclass = g", fillcolor="#eeab7b"] ;
14 -> 15 ;
16 [label="entropy = 0.0\nsamples = 1\nvalue = [0, 2]\nclass = o", fillcolor="#399de5"] ;
15 -> 16 ;
17 [label="entropy = 0.0\nsamples = 3\nvalue = [6, 0]\nclass = g", fillcolor="#e58139"] ;
15 -> 17 ;
18 [label="entropy = 0.0\nsamples = 1\nvalue = [0, 1]\nclass = o", fillcolor="#399de5"] ;
14 -> 18 ;
19 [label="entropy = 0.0\nsamples = 13\nvalue = [18, 0]\nclass = g", fillcolor="#e58139"] ;
9 -> 19 ;
20 [label="entropy = 0.0\nsamples = 3\nvalue = [0, 3]\nclass = o", fillcolor="#399de5"] ;
8 -> 20 ;
21 [label="property <= 121.5\nentropy = 0.98\nsamples = 395\nvalue = [360, 255]\nclass = g", fillcolor="#f7dac5"] ;
1 -> 21 ;
22 [label="age <= 21.5\nentropy = 0.99\nsamples = 100\nvalue = [67, 87]\nclass = o", fillcolor="#d1e8f9"] ;
21 -> 22 ;
23 [label="entropy = 0.0\nsamples = 3\nvalue = [4, 0]\nclass = g", fillcolor="#e58139"] ;
22 -> 23 ;
24 [label="job <= 173.5\nentropy = 0.98\nsamples = 97\nvalue = [63, 87]\nclass = o", fillcolor="#c8e4f8"] ;
22 -> 24 ;
25 [label="savings_account <= 61.5\nentropy = 0.96\nsamples = 91\nvalue = [54, 86]\nclass = o", fillcolor="#b5dbf5"] ;
24 -> 25 ;
26 [label="credit_amount <= 1211.5\nentropy = 1.0\nsamples = 62\nvalue = [45, 53]\nclass = o", fillcolor="#e1f0fb"] ;
25 -> 26 ;
27 [label="other_installment_plans <= 142.5\nentropy = 0.39\nsamples = 17\nvalue = [2, 24]\nclass = o", fillcolor="#49a5e7"] ;
26 -> 27 ;
28 [label="other_installment_plans <= 141.5\nentropy = 0.92\nsamples = 3\nvalue = [2, 1]\nclass = g", fillcolor="#f2c09c"] ;
27 -> 28 ;
29 [label="entropy = 0.0\nsamples = 1\nvalue = [0, 1]\nclass = o", fillcolor="#399de5"] ;
28 -> 29 ;
30 [label="entropy = 0.0\nsamples = 2\nvalue = [2, 0]\nclass = g", fillcolor="#e58139"] ;
28 -> 30 ;
31 [label="entropy = 0.0\nsamples = 14\nvalue = [0, 23]\nclass = o", fillcolor="#399de5"] ;
27 -> 31 ;
32 [label="account_status <= 11.5\nentropy = 0.97\nsamples = 45\nvalue = [43, 29]\nclass = g", fillcolor="#f7d6bf"] ;
26 -> 32 ;
33 [label="installment_rate <= 3.5\nentropy = 0.86\nsamples = 21\nvalue = [25, 10]\nclass = g", fillcolor="#efb388"] ;
32 -> 33 ;
34 [label="debtors/guarantors <= 101.5\nentropy = 0.98\nsamples = 9\nvalue = [7, 10]\nclass = o", fillcolor="#c4e2f7"] ;
33 -> 34 ;
35 [label="unemployed <= 74.0\nentropy = 0.92\nsamples = 8\nvalue = [5, 10]\nclass = o", fillcolor="#9ccef2"] ;
34 -> 35 ;
36 [label="age <= 36.5\nentropy = 0.65\nsamples = 7\nvalue = [2, 10]\nclass = o", fillcolor="#61b1ea"] ;
35 -> 36 ;
37 [label="entropy = 0.0\nsamples = 6\nvalue = [0, 10]\nclass = o", fillcolor="#399de5"] ;
36 -> 37 ;
38 [label="entropy = 0.0\nsamples = 1\nvalue = [2, 0]\nclass = g", fillcolor="#e58139"] ;
36 -> 38 ;
39 [label="entropy = 0.0\nsamples = 1\nvalue = [3, 0]\nclass = g", fillcolor="#e58139"] ;
35 -> 39 ;
40 [label="entropy = 0.0\nsamples = 1\nvalue = [2, 0]\nclass = g", fillcolor="#e58139"] ;
34 -> 40 ;
41 [label="entropy = 0.0\nsamples = 12\nvalue = [18, 0]\nclass = g", fillcolor="#e58139"] ;
33 -> 41 ;
42 [label="credit_amount <= 3092.0\nentropy = 1.0\nsamples = 24\nvalue = [18, 19]\nclass = o", fillcolor="#f5fafe"] ;
32 -> 42 ;
43 [label="personal_status_sex <= 92.5\nentropy = 0.94\nsamples = 20\nvalue = [18, 10]\nclass = g", fillcolor="#f3c7a7"] ;
42 -> 43 ;
44 [label="entropy = 0.0\nsamples = 6\nvalue = [9, 0]\nclass = g", fillcolor="#e58139"] ;
43 -> 44 ;
45 [label="duration <= 10.5\nentropy = 1.0\nsamples = 14\nvalue = [9, 10]\nclass = o", fillcolor="#ebf5fc"] ;
43 -> 45 ;
46 [label="entropy = 0.0\nsamples = 4\nvalue = [0, 6]\nclass = o", fillcolor="#399de5"] ;
45 -> 46 ;
47 [label="age <= 24.5\nentropy = 0.89\nsamples = 10\nvalue = [9, 4]\nclass = g", fillcolor="#f1b991"] ;
45 -> 47 ;
48 [label="entropy = 0.0\nsamples = 2\nvalue = [3, 0]\nclass = g", fillcolor="#e58139"] ;
47 -> 48 ;
49 [label="unemployed <= 74.5\nentropy = 0.97\nsamples = 8\nvalue = [6, 4]\nclass = g", fillcolor="#f6d5bd"] ;
47 -> 49 ;
50 [label="credit_amount <= 2012.5\nentropy = 0.81\nsamples = 6\nvalue = [6, 2]\nclass = g", fillcolor="#eeab7b"] ;
49 -> 50 ;
51 [label="entropy = 0.0\nsamples = 1\nvalue = [0, 2]\nclass = o", fillcolor="#399de5"] ;
50 -> 51 ;
52 [label="entropy = 0.0\nsamples = 5\nvalue = [6, 0]\nclass = g", fillcolor="#e58139"] ;
50 -> 52 ;
53 [label="entropy = 0.0\nsamples = 2\nvalue = [0, 2]\nclass = o", fillcolor="#399de5"] ;
49 -> 53 ;
54 [label="entropy = 0.0\nsamples = 4\nvalue = [0, 9]\nclass = o", fillcolor="#399de5"] ;
42 -> 54 ;
55 [label="installment_rate <= 3.5\nentropy = 0.75\nsamples = 29\nvalue = [9, 33]\nclass = o", fillcolor="#6fb8ec"] ;
25 -> 55 ;
56 [label="savings_account <= 64.5\nentropy = 0.27\nsamples = 14\nvalue = [1, 21]\nclass = o", fillcolor="#42a2e6"] ;
55 -> 56 ;
57 [label="entropy = 0.0\nsamples = 9\nvalue = [0, 14]\nclass = o", fillcolor="#399de5"] ;
56 -> 57 ;
58 [label="personal_status_sex <= 93.5\nentropy = 0.54\nsamples = 5\nvalue = [1, 7]\nclass = o", fillcolor="#55abe9"] ;
56 -> 58 ;
59 [label="entropy = 0.0\nsamples = 4\nvalue = [0, 7]\nclass = o", fillcolor="#399de5"] ;
58 -> 59 ;
60 [label="entropy = 0.0\nsamples = 1\nvalue = [1, 0]\nclass = g", fillcolor="#e58139"] ;
58 -> 60 ;
61 [label="housing <= 151.5\nentropy = 0.97\nsamples = 15\nvalue = [8, 12]\nclass = o", fillcolor="#bddef6"] ;
55 -> 61 ;
62 [label="entropy = 0.0\nsamples = 4\nvalue = [5, 0]\nclass = g", fillcolor="#e58139"] ;
61 -> 62 ;
63 [label="present_residence_since <= 3.5\nentropy = 0.72\nsamples = 11\nvalue = [3, 12]\nclass = o", fillcolor="#6ab6ec"] ;
61 -> 63 ;
64 [label="credit_amount <= 1363.0\nentropy = 0.85\nsamples = 9\nvalue = [3, 8]\nclass = o", fillcolor="#83c2ef"] ;
63 -> 64 ;
65 [label="unemployed <= 73.5\nentropy = 1.0\nsamples = 5\nvalue = [3, 3]\nclass = g", fillcolor="#ffffff"] ;
64 -> 65 ;
66 [label="personal_status_sex <= 93.5\nentropy = 0.81\nsamples = 3\nvalue = [1, 3]\nclass = o", fillcolor="#7bbeee"] ;
65 -> 66 ;
67 [label="personal_status_sex <= 92.5\nentropy = 1.0\nsamples = 2\nvalue = [1, 1]\nclass = g", fillcolor="#ffffff"] ;
66 -> 67 ;
68 [label="entropy = 0.0\nsamples = 1\nvalue = [0, 1]\nclass = o", fillcolor="#399de5"] ;
67 -> 68 ;
69 [label="entropy = 0.0\nsamples = 1\nvalue = [1, 0]\nclass = g", fillcolor="#e58139"] ;
67 -> 69 ;
70 [label="entropy = 0.0\nsamples = 1\nvalue = [0, 2]\nclass = o", fillcolor="#399de5"] ;
66 -> 70 ;
71 [label="entropy = 0.0\nsamples = 2\nvalue = [2, 0]\nclass = g", fillcolor="#e58139"] ;
65 -> 71 ;
72 [label="entropy = 0.0\nsamples = 4\nvalue = [0, 5]\nclass = o", fillcolor="#399de5"] ;
64 -> 72 ;
73 [label="entropy = 0.0\nsamples = 2\nvalue = [0, 4]\nclass = o", fillcolor="#399de5"] ;
63 -> 73 ;
74 [label="credit_amount <= 3911.5\nentropy = 0.47\nsamples = 6\nvalue = [9, 1]\nclass = g", fillcolor="#e88f4f"] ;
24 -> 74 ;
75 [label="entropy = 0.0\nsamples = 4\nvalue = [7, 0]\nclass = g", fillcolor="#e58139"] ;
74 -> 75 ;
76 [label="credits <= 1.5\nentropy = 0.92\nsamples = 2\nvalue = [2, 1]\nclass = g", fillcolor="#f2c09c"] ;
74 -> 76 ;
77 [label="entropy = 0.0\nsamples = 1\nvalue = [0, 1]\nclass = o", fillcolor="#399de5"] ;
76 -> 77 ;
78 [label="entropy = 0.0\nsamples = 1\nvalue = [2, 0]\nclass = g", fillcolor="#e58139"] ;
76 -> 78 ;
79 [label="purpose <= 40.5\nentropy = 0.95\nsamples = 295\nvalue = [293, 168]\nclass = g", fillcolor="#f4c9ab"] ;
21 -> 79 ;
80 [label="property <= 122.5\nentropy = 0.71\nsamples = 79\nvalue = [107, 26]\nclass = g", fillcolor="#eba069"] ;
79 -> 80 ;
81 [label="installment_rate <= 1.5\nentropy = 0.53\nsamples = 23\nvalue = [29, 4]\nclass = g", fillcolor="#e99254"] ;
80 -> 81 ;
82 [label="entropy = 0.0\nsamples = 1\nvalue = [0, 2]\nclass = o", fillcolor="#399de5"] ;
81 -> 82 ;
83 [label="present_residence_since <= 2.5\nentropy = 0.35\nsamples = 22\nvalue = [29, 2]\nclass = g", fillcolor="#e78a47"] ;
81 -> 83 ;
84 [label="telephone <= 191.5\nentropy = 0.49\nsamples = 14\nvalue = [17, 2]\nclass = g", fillcolor="#e89050"] ;
83 -> 84 ;
85 [label="savings_account <= 61.5\nentropy = 0.37\nsamples = 10\nvalue = [13, 1]\nclass = g", fillcolor="#e78b48"] ;
84 -> 85 ;
86 [label="credit_amount <= 5277.5\nentropy = 0.59\nsamples = 5\nvalue = [6, 1]\nclass = g", fillcolor="#e9965a"] ;
85 -> 86 ;
87 [label="entropy = 0.0\nsamples = 4\nvalue = [6, 0]\nclass = g", fillcolor="#e58139"] ;
86 -> 87 ;
88 [label="entropy = 0.0\nsamples = 1\nvalue = [0, 1]\nclass = o", fillcolor="#399de5"] ;
86 -> 88 ;
89 [label="entropy = 0.0\nsamples = 5\nvalue = [7, 0]\nclass = g", fillcolor="#e58139"] ;
85 -> 89 ;
90 [label="unemployed <= 74.0\nentropy = 0.72\nsamples = 4\nvalue = [4, 1]\nclass = g", fillcolor="#eca06a"] ;
84 -> 90 ;
91 [label="entropy = 0.0\nsamples = 3\nvalue = [4, 0]\nclass = g", fillcolor="#e58139"] ;
90 -> 91 ;
92 [label="entropy = 0.0\nsamples = 1\nvalue = [0, 1]\nclass = o", fillcolor="#399de5"] ;
90 -> 92 ;
93 [label="entropy = 0.0\nsamples = 8\nvalue = [12, 0]\nclass = g", fillcolor="#e58139"] ;
83 -> 93 ;
94 [label="credit_history <= 32.5\nentropy = 0.76\nsamples = 56\nvalue = [78, 22]\nclass = g", fillcolor="#eca571"] ;
80 -> 94 ;
95 [label="duration <= 26.0\nentropy = 0.31\nsamples = 40\nvalue = [67, 4]\nclass = g", fillcolor="#e78945"] ;
94 -> 95 ;
96 [label="housing <= 152.5\nentropy = 0.48\nsamples = 24\nvalue = [35, 4]\nclass = g", fillcolor="#e88f50"] ;
95 -> 96 ;
97 [label="liable_for <= 1.5\nentropy = 0.59\nsamples = 17\nvalue = [24, 4]\nclass = g", fillcolor="#e9965a"] ;
96 -> 97 ;
98 [label="job <= 172.5\nentropy = 0.61\nsamples = 16\nvalue = [23, 4]\nclass = g", fillcolor="#ea975b"] ;
97 -> 98 ;
99 [label="entropy = 0.0\nsamples = 4\nvalue = [7, 0]\nclass = g", fillcolor="#e58139"] ;
98 -> 99 ;
100 [label="personal_status_sex <= 92.5\nentropy = 0.72\nsamples = 12\nvalue = [16, 4]\nclass = g", fillcolor="#eca06a"] ;
98 -> 100 ;
101 [label="credit_amount <= 1387.5\nentropy = 0.52\nsamples = 9\nvalue = [15, 2]\nclass = g", fillcolor="#e89253"] ;
100 -> 101 ;
102 [label="entropy = 0.0\nsamples = 5\nvalue = [8, 0]\nclass = g", fillcolor="#e58139"] ;
101 -> 102 ;
103 [label="credit_amount <= 1422.5\nentropy = 0.76\nsamples = 4\nvalue = [7, 2]\nclass = g", fillcolor="#eca572"] ;
101 -> 103 ;
104 [label="entropy = 0.0\nsamples = 1\nvalue = [0, 2]\nclass = o", fillcolor="#399de5"] ;
103 -> 104 ;
105 [label="entropy = 0.0\nsamples = 3\nvalue = [7, 0]\nclass = g", fillcolor="#e58139"] ;
103 -> 105 ;
106 [label="credit_amount <= 2206.0\nentropy = 0.92\nsamples = 3\nvalue = [1, 2]\nclass = o", fillcolor="#9ccef2"] ;
100 -> 106 ;
107 [label="entropy = 0.0\nsamples = 1\nvalue = [1, 0]\nclass = g", fillcolor="#e58139"] ;
106 -> 107 ;
108 [label="entropy = 0.0\nsamples = 2\nvalue = [0, 2]\nclass = o", fillcolor="#399de5"] ;
106 -> 108 ;
109 [label="entropy = 0.0\nsamples = 1\nvalue = [1, 0]\nclass = g", fillcolor="#e58139"] ;
97 -> 109 ;
110 [label="entropy = 0.0\nsamples = 7\nvalue = [11, 0]\nclass = g", fillcolor="#e58139"] ;
96 -> 110 ;
111 [label="entropy = 0.0\nsamples = 16\nvalue = [32, 0]\nclass = g", fillcolor="#e58139"] ;
95 -> 111 ;
112 [label="credits <= 3.5\nentropy = 0.96\nsamples = 16\nvalue = [11, 18]\nclass = o", fillcolor="#b2d9f5"] ;
94 -> 112 ;
113 [label="savings_account <= 61.5\nentropy = 0.86\nsamples = 14\nvalue = [7, 18]\nclass = o", fillcolor="#86c3ef"] ;
112 -> 113 ;
114 [label="present_residence_since <= 2.5\nentropy = 0.99\nsamples = 9\nvalue = [7, 9]\nclass = o", fillcolor="#d3e9f9"] ;
113 -> 114 ;
115 [label="entropy = 0.0\nsamples = 3\nvalue = [3, 0]\nclass = g", fillcolor="#e58139"] ;
114 -> 115 ;
116 [label="other_installment_plans <= 142.0\nentropy = 0.89\nsamples = 6\nvalue = [4, 9]\nclass = o", fillcolor="#91c9f1"] ;
114 -> 116 ;
117 [label="entropy = 0.0\nsamples = 3\nvalue = [4, 0]\nclass = g", fillcolor="#e58139"] ;
116 -> 117 ;
118 [label="entropy = 0.0\nsamples = 3\nvalue = [0, 9]\nclass = o", fillcolor="#399de5"] ;
116 -> 118 ;
119 [label="entropy = 0.0\nsamples = 5\nvalue = [0, 9]\nclass = o", fillcolor="#399de5"] ;
113 -> 119 ;
120 [label="entropy = 0.0\nsamples = 2\nvalue = [4, 0]\nclass = g", fillcolor="#e58139"] ;
112 -> 120 ;
121 [label="account_status <= 12.5\nentropy = 0.99\nsamples = 216\nvalue = [186, 142]\nclass = g", fillcolor="#f9e1d0"] ;
79 -> 121 ;
122 [label="duration <= 7.5\nentropy = 0.98\nsamples = 194\nvalue = [173, 121]\nclass = g", fillcolor="#f7d9c3"] ;
121 -> 122 ;
123 [label="credits <= 1.5\nentropy = 0.62\nsamples = 9\nvalue = [2, 11]\nclass = o", fillcolor="#5dafea"] ;
122 -> 123 ;
124 [label="age <= 25.5\nentropy = 0.86\nsamples = 5\nvalue = [2, 5]\nclass = o", fillcolor="#88c4ef"] ;
123 -> 124 ;
125 [label="purpose <= 43.5\nentropy = 0.92\nsamples = 3\nvalue = [2, 1]\nclass = g", fillcolor="#f2c09c"] ;
124 -> 125 ;
126 [label="entropy = 0.0\nsamples = 1\nvalue = [0, 1]\nclass = o", fillcolor="#399de5"] ;
125 -> 126 ;
127 [label="entropy = 0.0\nsamples = 2\nvalue = [2, 0]\nclass = g", fillcolor="#e58139"] ;
125 -> 127 ;
128 [label="entropy = 0.0\nsamples = 2\nvalue = [0, 4]\nclass = o", fillcolor="#399de5"] ;
124 -> 128 ;
129 [label="entropy = 0.0\nsamples = 4\nvalue = [0, 6]\nclass = o", fillcolor="#399de5"] ;
123 -> 129 ;
130 [label="purpose <= 44.5\nentropy = 0.97\nsamples = 185\nvalue = [171, 110]\nclass = g", fillcolor="#f6d2b8"] ;
122 -> 130 ;
131 [label="credit_amount <= 6668.5\nentropy = 0.94\nsamples = 140\nvalue = [136, 74]\nclass = g", fillcolor="#f3c6a5"] ;
130 -> 131 ;
132 [label="installment_rate <= 2.5\nentropy = 0.97\nsamples = 120\nvalue = [105, 72]\nclass = g", fillcolor="#f7d7c1"] ;
131 -> 132 ;
133 [label="housing <= 152.5\nentropy = 1.0\nsamples = 37\nvalue = [23, 26]\nclass = o", fillcolor="#e8f4fc"] ;
132 -> 133 ;
134 [label="unemployed <= 73.5\nentropy = 1.0\nsamples = 35\nvalue = [23, 23]\nclass = g", fillcolor="#ffffff"] ;
133 -> 134 ;
135 [label="purpose <= 41.5\nentropy = 0.85\nsamples = 21\nvalue = [21, 8]\nclass = g", fillcolor="#efb184"] ;
134 -> 135 ;
136 [label="entropy = 0.0\nsamples = 1\nvalue = [0, 2]\nclass = o", fillcolor="#399de5"] ;
135 -> 136 ;
137 [label="duration <= 27.0\nentropy = 0.76\nsamples = 20\nvalue = [21, 6]\nclass = g", fillcolor="#eca572"] ;
135 -> 137 ;
138 [label="credit_amount <= 3955.5\nentropy = 0.88\nsamples = 14\nvalue = [14, 6]\nclass = g", fillcolor="#f0b78e"] ;
137 -> 138 ;
139 [label="personal_status_sex <= 93.5\nentropy = 0.99\nsamples = 9\nvalue = [4, 5]\nclass = o", fillcolor="#d7ebfa"] ;
138 -> 139 ;
140 [label="savings_account <= 62.5\nentropy = 0.95\nsamples = 8\nvalue = [3, 5]\nclass = o", fillcolor="#b0d8f5"] ;
139 -> 140 ;
141 [label="present_residence_since <= 1.5\nentropy = 0.99\nsamples = 7\nvalue = [3, 4]\nclass = o", fillcolor="#cee6f8"] ;
140 -> 141 ;
142 [label="installment_rate <= 1.5\nentropy = 0.81\nsamples = 4\nvalue = [3, 1]\nclass = g", fillcolor="#eeab7b"] ;
141 -> 142 ;
143 [label="entropy = 0.0\nsamples = 2\nvalue = [2, 0]\nclass = g", fillcolor="#e58139"] ;
142 -> 143 ;
144 [label="credit_amount <= 2113.5\nentropy = 1.0\nsamples = 2\nvalue = [1, 1]\nclass = g", fillcolor="#ffffff"] ;
142 -> 144 ;
145 [label="entropy = 0.0\nsamples = 1\nvalue = [1, 0]\nclass = g", fillcolor="#e58139"] ;
144 -> 145 ;
146 [label="entropy = 0.0\nsamples = 1\nvalue = [0, 1]\nclass = o", fillcolor="#399de5"] ;
144 -> 146 ;
147 [label="entropy = 0.0\nsamples = 3\nvalue = [0, 3]\nclass = o", fillcolor="#399de5"] ;
141 -> 147 ;
148 [label="entropy = 0.0\nsamples = 1\nvalue = [0, 1]\nclass = o", fillcolor="#399de5"] ;
140 -> 148 ;
149 [label="entropy = 0.0\nsamples = 1\nvalue = [1, 0]\nclass = g", fillcolor="#e58139"] ;
139 -> 149 ;
150 [label="age <= 37.5\nentropy = 0.44\nsamples = 5\nvalue = [10, 1]\nclass = g", fillcolor="#e88e4d"] ;
138 -> 150 ;
151 [label="present_residence_since <= 3.0\nentropy = 0.81\nsamples = 2\nvalue = [3, 1]\nclass = g", fillcolor="#eeab7b"] ;
150 -> 151 ;
152 [label="entropy = 0.0\nsamples = 1\nvalue = [0, 1]\nclass = o", fillcolor="#399de5"] ;
151 -> 152 ;
153 [label="entropy = 0.0\nsamples = 1\nvalue = [3, 0]\nclass = g", fillcolor="#e58139"] ;
151 -> 153 ;
154 [label="entropy = 0.0\nsamples = 3\nvalue = [7, 0]\nclass = g", fillcolor="#e58139"] ;
150 -> 154 ;
155 [label="entropy = 0.0\nsamples = 6\nvalue = [7, 0]\nclass = g", fillcolor="#e58139"] ;
137 -> 155 ;
156 [label="purpose <= 42.5\nentropy = 0.52\nsamples = 14\nvalue = [2, 15]\nclass = o", fillcolor="#53aae8"] ;
134 -> 156 ;
157 [label="age <= 25.5\nentropy = 0.68\nsamples = 9\nvalue = [2, 9]\nclass = o", fillcolor="#65b3eb"] ;
156 -> 157 ;
158 [label="unemployed <= 74.5\nentropy = 1.0\nsamples = 4\nvalue = [2, 2]\nclass = g", fillcolor="#ffffff"] ;
157 -> 158 ;
159 [label="entropy = 0.0\nsamples = 2\nvalue = [0, 2]\nclass = o", fillcolor="#399de5"] ;
158 -> 159 ;
160 [label="entropy = 0.0\nsamples = 2\nvalue = [2, 0]\nclass = g", fillcolor="#e58139"] ;
158 -> 160 ;
161 [label="entropy = 0.0\nsamples = 5\nvalue = [0, 7]\nclass = o", fillcolor="#399de5"] ;
157 -> 161 ;
162 [label="entropy = 0.0\nsamples = 5\nvalue = [0, 6]\nclass = o", fillcolor="#399de5"] ;
156 -> 162 ;
163 [label="entropy = 0.0\nsamples = 2\nvalue = [0, 3]\nclass = o", fillcolor="#399de5"] ;
133 -> 163 ;
164 [label="housing <= 151.5\nentropy = 0.94\nsamples = 83\nvalue = [82, 46]\nclass = g", fillcolor="#f4c8a8"] ;
132 -> 164 ;
165 [label="age <= 48.0\nentropy = 0.8\nsamples = 23\nvalue = [28, 9]\nclass = g", fillcolor="#edaa79"] ;
164 -> 165 ;
166 [label="present_residence_since <= 1.5\nentropy = 0.72\nsamples = 22\nvalue = [28, 7]\nclass = g", fillcolor="#eca06a"] ;
165 -> 166 ;
167 [label="entropy = 0.0\nsamples = 1\nvalue = [0, 1]\nclass = o", fillcolor="#399de5"] ;
166 -> 167 ;
168 [label="unemployed <= 73.5\nentropy = 0.67\nsamples = 21\nvalue = [28, 6]\nclass = g", fillcolor="#eb9c63"] ;
166 -> 168 ;
169 [label="credit_history <= 33.5\nentropy = 0.27\nsamples = 13\nvalue = [21, 1]\nclass = g", fillcolor="#e68742"] ;
168 -> 169 ;
170 [label="entropy = 0.0\nsamples = 12\nvalue = [21, 0]\nclass = g", fillcolor="#e58139"] ;
169 -> 170 ;
171 [label="entropy = 0.0\nsamples = 1\nvalue = [0, 1]\nclass = o", fillcolor="#399de5"] ;
169 -> 171 ;
172 [label="present_residence_since <= 2.5\nentropy = 0.98\nsamples = 8\nvalue = [7, 5]\nclass = g", fillcolor="#f8dbc6"] ;
168 -> 172 ;
173 [label="age <= 31.0\nentropy = 0.54\nsamples = 5\nvalue = [7, 1]\nclass = g", fillcolor="#e99355"] ;
172 -> 173 ;
174 [label="entropy = 0.0\nsamples = 1\nvalue = [0, 1]\nclass = o", fillcolor="#399de5"] ;
173 -> 174 ;
175 [label="entropy = 0.0\nsamples = 4\nvalue = [7, 0]\nclass = g", fillcolor="#e58139"] ;
173 -> 175 ;
176 [label="entropy = 0.0\nsamples = 3\nvalue = [0, 4]\nclass = o", fillcolor="#399de5"] ;
172 -> 176 ;
177 [label="entropy = 0.0\nsamples = 1\nvalue = [0, 2]\nclass = o", fillcolor="#399de5"] ;
165 -> 177 ;
178 [label="property <= 123.5\nentropy = 0.97\nsamples = 60\nvalue = [54, 37]\nclass = g", fillcolor="#f7d7c1"] ;
164 -> 178 ;
179 [label="present_residence_since <= 3.5\nentropy = 1.0\nsamples = 41\nvalue = [33, 28]\nclass = g", fillcolor="#fbece1"] ;
178 -> 179 ;
180 [label="purpose <= 41.5\nentropy = 0.97\nsamples = 35\nvalue = [31, 20]\nclass = g", fillcolor="#f6d2b9"] ;
179 -> 180 ;
181 [label="entropy = 0.0\nsamples = 3\nvalue = [0, 7]\nclass = o", fillcolor="#399de5"] ;
180 -> 181 ;
182 [label="credit_amount <= 1144.5\nentropy = 0.88\nsamples = 32\nvalue = [31, 13]\nclass = g", fillcolor="#f0b68c"] ;
180 -> 182 ;
183 [label="entropy = 0.0\nsamples = 7\nvalue = [10, 0]\nclass = g", fillcolor="#e58139"] ;
182 -> 183 ;
184 [label="savings_account <= 63.5\nentropy = 0.96\nsamples = 25\nvalue = [21, 13]\nclass = g", fillcolor="#f5cfb4"] ;
182 -> 184 ;
185 [label="duration <= 39.0\nentropy = 0.93\nsamples = 23\nvalue = [21, 11]\nclass = g", fillcolor="#f3c3a1"] ;
184 -> 185 ;
186 [label="savings_account <= 61.5\nentropy = 0.98\nsamples = 21\nvalue = [16, 11]\nclass = g", fillcolor="#f7d8c1"] ;
185 -> 186 ;
187 [label="present_residence_since <= 1.5\nentropy = 1.0\nsamples = 17\nvalue = [11, 10]\nclass = g", fillcolor="#fdf4ed"] ;
186 -> 187 ;
188 [label="unemployed <= 71.5\nentropy = 0.86\nsamples = 6\nvalue = [2, 5]\nclass = o", fillcolor="#88c4ef"] ;
187 -> 188 ;
189 [label="entropy = 0.0\nsamples = 1\nvalue = [2, 0]\nclass = g", fillcolor="#e58139"] ;
188 -> 189 ;
190 [label="entropy = 0.0\nsamples = 5\nvalue = [0, 5]\nclass = o", fillcolor="#399de5"] ;
188 -> 190 ;
191 [label="present_residence_since <= 2.5\nentropy = 0.94\nsamples = 11\nvalue = [9, 5]\nclass = g", fillcolor="#f3c7a7"] ;
187 -> 191 ;
192 [label="account_status <= 11.5\nentropy = 0.72\nsamples = 8\nvalue = [8, 2]\nclass = g", fillcolor="#eca06a"] ;
191 -> 192 ;
193 [label="installment_rate <= 3.5\nentropy = 0.92\nsamples = 5\nvalue = [4, 2]\nclass = g", fillcolor="#f2c09c"] ;
192 -> 193 ;
194 [label="entropy = 0.0\nsamples = 2\nvalue = [0, 2]\nclass = o", fillcolor="#399de5"] ;
193 -> 194 ;
195 [label="entropy = 0.0\nsamples = 3\nvalue = [4, 0]\nclass = g", fillcolor="#e58139"] ;
193 -> 195 ;
196 [label="entropy = 0.0\nsamples = 3\nvalue = [4, 0]\nclass = g", fillcolor="#e58139"] ;
192 -> 196 ;
197 [label="job <= 173.5\nentropy = 0.81\nsamples = 3\nvalue = [1, 3]\nclass = o", fillcolor="#7bbeee"] ;
191 -> 197 ;
198 [label="credit_amount <= 2740.5\nentropy = 1.0\nsamples = 2\nvalue = [1, 1]\nclass = g", fillcolor="#ffffff"] ;
197 -> 198 ;
199 [label="entropy = 0.0\nsamples = 1\nvalue = [0, 1]\nclass = o", fillcolor="#399de5"] ;
198 -> 199 ;
200 [label="entropy = 0.0\nsamples = 1\nvalue = [1, 0]\nclass = g", fillcolor="#e58139"] ;
198 -> 200 ;
201 [label="entropy = 0.0\nsamples = 1\nvalue = [0, 2]\nclass = o", fillcolor="#399de5"] ;
197 -> 201 ;
202 [label="personal_status_sex <= 91.5\nentropy = 0.65\nsamples = 4\nvalue = [5, 1]\nclass = g", fillcolor="#ea9a61"] ;
186 -> 202 ;
203 [label="entropy = 0.0\nsamples = 1\nvalue = [0, 1]\nclass = o", fillcolor="#399de5"] ;
202 -> 203 ;
204 [label="entropy = 0.0\nsamples = 3\nvalue = [5, 0]\nclass = g", fillcolor="#e58139"] ;
202 -> 204 ;
205 [label="entropy = 0.0\nsamples = 2\nvalue = [5, 0]\nclass = g", fillcolor="#e58139"] ;
185 -> 205 ;
206 [label="entropy = 0.0\nsamples = 2\nvalue = [0, 2]\nclass = o", fillcolor="#399de5"] ;
184 -> 206 ;
207 [label="unemployed <= 74.5\nentropy = 0.72\nsamples = 6\nvalue = [2, 8]\nclass = o", fillcolor="#6ab6ec"] ;
179 -> 207 ;
208 [label="entropy = 0.0\nsamples = 4\nvalue = [0, 6]\nclass = o", fillcolor="#399de5"] ;
207 -> 208 ;
209 [label="duration <= 27.0\nentropy = 1.0\nsamples = 2\nvalue = [2, 2]\nclass = g", fillcolor="#ffffff"] ;
207 -> 209 ;
210 [label="entropy = 0.0\nsamples = 1\nvalue = [0, 2]\nclass = o", fillcolor="#399de5"] ;
209 -> 210 ;
211 [label="entropy = 0.0\nsamples = 1\nvalue = [2, 0]\nclass = g", fillcolor="#e58139"] ;
209 -> 211 ;
212 [label="personal_status_sex <= 93.5\nentropy = 0.88\nsamples = 19\nvalue = [21, 9]\nclass = g", fillcolor="#f0b78e"] ;
178 -> 212 ;
213 [label="present_residence_since <= 2.5\nentropy = 0.97\nsamples = 15\nvalue = [14, 9]\nclass = g", fillcolor="#f6d2b8"] ;
212 -> 213 ;
214 [label="entropy = 0.0\nsamples = 3\nvalue = [0, 5]\nclass = o", fillcolor="#399de5"] ;
213 -> 214 ;
215 [label="installment_rate <= 3.5\nentropy = 0.76\nsamples = 12\nvalue = [14, 4]\nclass = g", fillcolor="#eca572"] ;
213 -> 215 ;
216 [label="credit_amount <= 3155.0\nentropy = 0.99\nsamples = 4\nvalue = [3, 4]\nclass = o", fillcolor="#cee6f8"] ;
215 -> 216 ;
217 [label="entropy = 0.0\nsamples = 2\nvalue = [0, 4]\nclass = o", fillcolor="#399de5"] ;
216 -> 217 ;
218 [label="entropy = 0.0\nsamples = 2\nvalue = [3, 0]\nclass = g", fillcolor="#e58139"] ;
216 -> 218 ;
219 [label="entropy = 0.0\nsamples = 8\nvalue = [11, 0]\nclass = g", fillcolor="#e58139"] ;
215 -> 219 ;
220 [label="entropy = 0.0\nsamples = 4\nvalue = [7, 0]\nclass = g", fillcolor="#e58139"] ;
212 -> 220 ;
221 [label="duration <= 54.0\nentropy = 0.33\nsamples = 20\nvalue = [31, 2]\nclass = g", fillcolor="#e78946"] ;
131 -> 221 ;
222 [label="liable_for <= 1.5\nentropy = 0.2\nsamples = 19\nvalue = [31, 1]\nclass = g", fillcolor="#e6853f"] ;
221 -> 222 ;
223 [label="entropy = 0.0\nsamples = 16\nvalue = [28, 0]\nclass = g", fillcolor="#e58139"] ;
222 -> 223 ;
224 [label="savings_account <= 63.0\nentropy = 0.81\nsamples = 3\nvalue = [3, 1]\nclass = g", fillcolor="#eeab7b"] ;
222 -> 224 ;
225 [label="present_residence_since <= 3.0\nentropy = 1.0\nsamples = 2\nvalue = [1, 1]\nclass = g", fillcolor="#ffffff"] ;
224 -> 225 ;
226 [label="entropy = 0.0\nsamples = 1\nvalue = [1, 0]\nclass = g", fillcolor="#e58139"] ;
225 -> 226 ;
227 [label="entropy = 0.0\nsamples = 1\nvalue = [0, 1]\nclass = o", fillcolor="#399de5"] ;
225 -> 227 ;
228 [label="entropy = 0.0\nsamples = 1\nvalue = [2, 0]\nclass = g", fillcolor="#e58139"] ;
224 -> 228 ;
229 [label="entropy = 0.0\nsamples = 1\nvalue = [0, 1]\nclass = o", fillcolor="#399de5"] ;
221 -> 229 ;
230 [label="present_residence_since <= 3.5\nentropy = 1.0\nsamples = 45\nvalue = [35, 36]\nclass = o", fillcolor="#fafcfe"] ;
130 -> 230 ;
231 [label="duration <= 12.5\nentropy = 0.96\nsamples = 27\nvalue = [26, 16]\nclass = g", fillcolor="#f5cfb3"] ;
230 -> 231 ;
232 [label="entropy = 0.0\nsamples = 4\nvalue = [5, 0]\nclass = g", fillcolor="#e58139"] ;
231 -> 232 ;
233 [label="account_status <= 11.5\nentropy = 0.99\nsamples = 23\nvalue = [21, 16]\nclass = g", fillcolor="#f9e1d0"] ;
231 -> 233 ;
234 [label="debtors/guarantors <= 101.5\nentropy = 0.68\nsamples = 7\nvalue = [9, 2]\nclass = g", fillcolor="#eb9d65"] ;
233 -> 234 ;
235 [label="credit_history <= 33.5\nentropy = 0.47\nsamples = 6\nvalue = [9, 1]\nclass = g", fillcolor="#e88f4f"] ;
234 -> 235 ;
236 [label="entropy = 0.0\nsamples = 3\nvalue = [6, 0]\nclass = g", fillcolor="#e58139"] ;
235 -> 236 ;
237 [label="unemployed <= 72.5\nentropy = 0.81\nsamples = 3\nvalue = [3, 1]\nclass = g", fillcolor="#eeab7b"] ;
235 -> 237 ;
238 [label="entropy = 0.0\nsamples = 1\nvalue = [0, 1]\nclass = o", fillcolor="#399de5"] ;
237 -> 238 ;
239 [label="entropy = 0.0\nsamples = 2\nvalue = [3, 0]\nclass = g", fillcolor="#e58139"] ;
237 -> 239 ;
240 [label="entropy = 0.0\nsamples = 1\nvalue = [0, 1]\nclass = o", fillcolor="#399de5"] ;
234 -> 240 ;
241 [label="liable_for <= 1.5\nentropy = 1.0\nsamples = 16\nvalue = [12, 14]\nclass = o", fillcolor="#e3f1fb"] ;
233 -> 241 ;
242 [label="debtors/guarantors <= 101.5\nentropy = 0.9\nsamples = 12\nvalue = [6, 13]\nclass = o", fillcolor="#94caf1"] ;
241 -> 242 ;
243 [label="credit_amount <= 1969.5\nentropy = 0.79\nsamples = 11\nvalue = [4, 13]\nclass = o", fillcolor="#76bbed"] ;
242 -> 243 ;
244 [label="entropy = 0.0\nsamples = 2\nvalue = [2, 0]\nclass = g", fillcolor="#e58139"] ;
243 -> 244 ;
245 [label="age <= 25.0\nentropy = 0.57\nsamples = 9\nvalue = [2, 13]\nclass = o", fillcolor="#57ace9"] ;
243 -> 245 ;
246 [label="entropy = 0.0\nsamples = 2\nvalue = [2, 0]\nclass = g", fillcolor="#e58139"] ;
245 -> 246 ;
247 [label="entropy = 0.0\nsamples = 7\nvalue = [0, 13]\nclass = o", fillcolor="#399de5"] ;
245 -> 247 ;
248 [label="entropy = 0.0\nsamples = 1\nvalue = [2, 0]\nclass = g", fillcolor="#e58139"] ;
242 -> 248 ;
249 [label="personal_status_sex <= 93.5\nentropy = 0.59\nsamples = 4\nvalue = [6, 1]\nclass = g", fillcolor="#e9965a"] ;
241 -> 249 ;
250 [label="entropy = 0.0\nsamples = 3\nvalue = [6, 0]\nclass = g", fillcolor="#e58139"] ;
249 -> 250 ;
251 [label="entropy = 0.0\nsamples = 1\nvalue = [0, 1]\nclass = o", fillcolor="#399de5"] ;
249 -> 251 ;
252 [label="credits <= 1.5\nentropy = 0.89\nsamples = 18\nvalue = [9, 20]\nclass = o", fillcolor="#92c9f1"] ;
230 -> 252 ;
253 [label="age <= 35.0\nentropy = 1.0\nsamples = 12\nvalue = [8, 8]\nclass = g", fillcolor="#ffffff"] ;
252 -> 253 ;
254 [label="credit_amount <= 3465.0\nentropy = 0.65\nsamples = 4\nvalue = [1, 5]\nclass = o", fillcolor="#61b1ea"] ;
253 -> 254 ;
255 [label="entropy = 0.0\nsamples = 2\nvalue = [0, 4]\nclass = o", fillcolor="#399de5"] ;
254 -> 255 ;
256 [label="telephone <= 191.5\nentropy = 1.0\nsamples = 2\nvalue = [1, 1]\nclass = g", fillcolor="#ffffff"] ;
254 -> 256 ;
257 [label="entropy = 0.0\nsamples = 1\nvalue = [1, 0]\nclass = g", fillcolor="#e58139"] ;
256 -> 257 ;
258 [label="entropy = 0.0\nsamples = 1\nvalue = [0, 1]\nclass = o", fillcolor="#399de5"] ;
256 -> 258 ;
259 [label="savings_account <= 63.5\nentropy = 0.88\nsamples = 8\nvalue = [7, 3]\nclass = g", fillcolor="#f0b78e"] ;
253 -> 259 ;
260 [label="job <= 173.5\nentropy = 0.76\nsamples = 7\nvalue = [7, 2]\nclass = g", fillcolor="#eca572"] ;
259 -> 260 ;
261 [label="purpose <= 45.5\nentropy = 0.54\nsamples = 6\nvalue = [7, 1]\nclass = g", fillcolor="#e99355"] ;
260 -> 261 ;
262 [label="entropy = 0.0\nsamples = 1\nvalue = [0, 1]\nclass = o", fillcolor="#399de5"] ;
261 -> 262 ;
263 [label="entropy = 0.0\nsamples = 5\nvalue = [7, 0]\nclass = g", fillcolor="#e58139"] ;
261 -> 263 ;
264 [label="entropy = 0.0\nsamples = 1\nvalue = [0, 1]\nclass = o", fillcolor="#399de5"] ;
260 -> 264 ;
265 [label="entropy = 0.0\nsamples = 1\nvalue = [0, 1]\nclass = o", fillcolor="#399de5"] ;
259 -> 265 ;
266 [label="property <= 123.5\nentropy = 0.39\nsamples = 6\nvalue = [1, 12]\nclass = o", fillcolor="#49a5e7"] ;
252 -> 266 ;
267 [label="entropy = 0.0\nsamples = 4\nvalue = [0, 10]\nclass = o", fillcolor="#399de5"] ;
266 -> 267 ;
268 [label="credit_amount <= 3466.5\nentropy = 0.92\nsamples = 2\nvalue = [1, 2]\nclass = o", fillcolor="#9ccef2"] ;
266 -> 268 ;
269 [label="entropy = 0.0\nsamples = 1\nvalue = [1, 0]\nclass = g", fillcolor="#e58139"] ;
268 -> 269 ;
270 [label="entropy = 0.0\nsamples = 1\nvalue = [0, 2]\nclass = o", fillcolor="#399de5"] ;
268 -> 270 ;
271 [label="personal_status_sex <= 93.5\nentropy = 0.96\nsamples = 22\nvalue = [13, 21]\nclass = o", fillcolor="#b4daf5"] ;
121 -> 271 ;
272 [label="purpose <= 42.5\nentropy = 0.98\nsamples = 21\nvalue = [13, 18]\nclass = o", fillcolor="#c8e4f8"] ;
271 -> 272 ;
273 [label="entropy = 0.0\nsamples = 5\nvalue = [0, 7]\nclass = o", fillcolor="#399de5"] ;
272 -> 273 ;
274 [label="credit_amount <= 2503.0\nentropy = 0.99\nsamples = 16\nvalue = [13, 11]\nclass = g", fillcolor="#fbece1"] ;
272 -> 274 ;
275 [label="duration <= 12.5\nentropy = 0.78\nsamples = 8\nvalue = [10, 3]\nclass = g", fillcolor="#eda774"] ;
274 -> 275 ;
276 [label="entropy = 0.0\nsamples = 2\nvalue = [0, 3]\nclass = o", fillcolor="#399de5"] ;
275 -> 276 ;
277 [label="entropy = 0.0\nsamples = 6\nvalue = [10, 0]\nclass = g", fillcolor="#e58139"] ;
275 -> 277 ;
278 [label="unemployed <= 73.5\nentropy = 0.85\nsamples = 8\nvalue = [3, 8]\nclass = o", fillcolor="#83c2ef"] ;
274 -> 278 ;
279 [label="present_residence_since <= 1.5\nentropy = 1.0\nsamples = 3\nvalue = [3, 3]\nclass = g", fillcolor="#ffffff"] ;
278 -> 279 ;
280 [label="entropy = 0.0\nsamples = 1\nvalue = [0, 2]\nclass = o", fillcolor="#399de5"] ;
279 -> 280 ;
281 [label="age <= 28.5\nentropy = 0.81\nsamples = 2\nvalue = [3, 1]\nclass = g", fillcolor="#eeab7b"] ;
279 -> 281 ;
282 [label="entropy = 0.0\nsamples = 1\nvalue = [3, 0]\nclass = g", fillcolor="#e58139"] ;
281 -> 282 ;
283 [label="entropy = 0.0\nsamples = 1\nvalue = [0, 1]\nclass = o", fillcolor="#399de5"] ;
281 -> 283 ;
284 [label="entropy = 0.0\nsamples = 5\nvalue = [0, 5]\nclass = o", fillcolor="#399de5"] ;
278 -> 284 ;
285 [label="entropy = 0.0\nsamples = 1\nvalue = [0, 3]\nclass = o", fillcolor="#399de5"] ;
271 -> 285 ;
286 [label="savings_account <= 63.5\nentropy = 0.79\nsamples = 216\nvalue = [81, 265]\nclass = o", fillcolor="#76bbed"] ;
0 -> 286 [labeldistance=2.5, labelangle=-45, headlabel="False"] ;
287 [label="duration <= 16.5\nentropy = 0.86\nsamples = 151\nvalue = [68, 170]\nclass = o", fillcolor="#88c4ef"] ;
286 -> 287 ;
288 [label="age <= 29.5\nentropy = 0.66\nsamples = 71\nvalue = [19, 93]\nclass = o", fillcolor="#61b1ea"] ;
287 -> 288 ;
289 [label="telephone <= 191.5\nentropy = 0.96\nsamples = 26\nvalue = [14, 22]\nclass = o", fillcolor="#b7dbf6"] ;
288 -> 289 ;
290 [label="credit_amount <= 962.5\nentropy = 1.0\nsamples = 20\nvalue = [14, 15]\nclass = o", fillcolor="#f2f8fd"] ;
289 -> 290 ;
291 [label="entropy = 0.0\nsamples = 3\nvalue = [0, 4]\nclass = o", fillcolor="#399de5"] ;
290 -> 291 ;
292 [label="credit_history <= 33.0\nentropy = 0.99\nsamples = 17\nvalue = [14, 11]\nclass = g", fillcolor="#f9e4d5"] ;
290 -> 292 ;
293 [label="credit_amount <= 1286.0\nentropy = 0.92\nsamples = 13\nvalue = [14, 7]\nclass = g", fillcolor="#f2c09c"] ;
292 -> 293 ;
294 [label="entropy = 0.0\nsamples = 3\nvalue = [6, 0]\nclass = g", fillcolor="#e58139"] ;
293 -> 294 ;
295 [label="savings_account <= 61.5\nentropy = 1.0\nsamples = 10\nvalue = [8, 7]\nclass = g", fillcolor="#fcefe6"] ;
293 -> 295 ;
296 [label="debtors/guarantors <= 102.5\nentropy = 0.99\nsamples = 9\nvalue = [8, 6]\nclass = g", fillcolor="#f8e0ce"] ;
295 -> 296 ;
297 [label="debtors/guarantors <= 101.5\nentropy = 0.96\nsamples = 8\nvalue = [8, 5]\nclass = g", fillcolor="#f5d0b5"] ;
296 -> 297 ;
298 [label="credit_amount <= 2159.0\nentropy = 0.99\nsamples = 7\nvalue = [6, 5]\nclass = g", fillcolor="#fbeade"] ;
297 -> 298 ;
299 [label="housing <= 151.5\nentropy = 0.86\nsamples = 5\nvalue = [2, 5]\nclass = o", fillcolor="#88c4ef"] ;
298 -> 299 ;
300 [label="entropy = 0.0\nsamples = 3\nvalue = [0, 4]\nclass = o", fillcolor="#399de5"] ;
299 -> 300 ;
301 [label="personal_status_sex <= 92.5\nentropy = 0.92\nsamples = 2\nvalue = [2, 1]\nclass = g", fillcolor="#f2c09c"] ;
299 -> 301 ;
302 [label="entropy = 0.0\nsamples = 1\nvalue = [0, 1]\nclass = o", fillcolor="#399de5"] ;
301 -> 302 ;
303 [label="entropy = 0.0\nsamples = 1\nvalue = [2, 0]\nclass = g", fillcolor="#e58139"] ;
301 -> 303 ;
304 [label="entropy = 0.0\nsamples = 2\nvalue = [4, 0]\nclass = g", fillcolor="#e58139"] ;
298 -> 304 ;
305 [label="entropy = 0.0\nsamples = 1\nvalue = [2, 0]\nclass = g", fillcolor="#e58139"] ;
297 -> 305 ;
306 [label="entropy = 0.0\nsamples = 1\nvalue = [0, 1]\nclass = o", fillcolor="#399de5"] ;
296 -> 306 ;
307 [label="entropy = 0.0\nsamples = 1\nvalue = [0, 1]\nclass = o", fillcolor="#399de5"] ;
295 -> 307 ;
308 [label="entropy = 0.0\nsamples = 4\nvalue = [0, 4]\nclass = o", fillcolor="#399de5"] ;
292 -> 308 ;
309 [label="entropy = 0.0\nsamples = 6\nvalue = [0, 7]\nclass = o", fillcolor="#399de5"] ;
289 -> 309 ;
310 [label="credit_amount <= 2194.0\nentropy = 0.35\nsamples = 45\nvalue = [5, 71]\nclass = o", fillcolor="#47a4e7"] ;
288 -> 310 ;
311 [label="unemployed <= 74.5\nentropy = 0.14\nsamples = 32\nvalue = [1, 51]\nclass = o", fillcolor="#3d9fe6"] ;
310 -> 311 ;
312 [label="entropy = 0.0\nsamples = 20\nvalue = [0, 34]\nclass = o", fillcolor="#399de5"] ;
311 -> 312 ;
313 [label="other_installment_plans <= 142.0\nentropy = 0.31\nsamples = 12\nvalue = [1, 17]\nclass = o", fillcolor="#45a3e7"] ;
311 -> 313 ;
314 [label="credit_history <= 31.5\nentropy = 0.65\nsamples = 3\nvalue = [1, 5]\nclass = o", fillcolor="#61b1ea"] ;
313 -> 314 ;
315 [label="entropy = 0.0\nsamples = 2\nvalue = [0, 5]\nclass = o", fillcolor="#399de5"] ;
314 -> 315 ;
316 [label="entropy = 0.0\nsamples = 1\nvalue = [1, 0]\nclass = g", fillcolor="#e58139"] ;
314 -> 316 ;
317 [label="entropy = 0.0\nsamples = 9\nvalue = [0, 12]\nclass = o", fillcolor="#399de5"] ;
313 -> 317 ;
318 [label="credits <= 1.5\nentropy = 0.65\nsamples = 13\nvalue = [4, 20]\nclass = o", fillcolor="#61b1ea"] ;
310 -> 318 ;
319 [label="personal_status_sex <= 92.5\nentropy = 0.3\nsamples = 9\nvalue = [1, 18]\nclass = o", fillcolor="#44a2e6"] ;
318 -> 319 ;
320 [label="property <= 123.0\nentropy = 0.92\nsamples = 2\nvalue = [1, 2]\nclass = o", fillcolor="#9ccef2"] ;
319 -> 320 ;
321 [label="entropy = 0.0\nsamples = 1\nvalue = [1, 0]\nclass = g", fillcolor="#e58139"] ;
320 -> 321 ;
322 [label="entropy = 0.0\nsamples = 1\nvalue = [0, 2]\nclass = o", fillcolor="#399de5"] ;
320 -> 322 ;
323 [label="entropy = 0.0\nsamples = 7\nvalue = [0, 16]\nclass = o", fillcolor="#399de5"] ;
319 -> 323 ;
324 [label="job <= 173.5\nentropy = 0.97\nsamples = 4\nvalue = [3, 2]\nclass = g", fillcolor="#f6d5bd"] ;
318 -> 324 ;
325 [label="entropy = 0.0\nsamples = 2\nvalue = [0, 2]\nclass = o", fillcolor="#399de5"] ;
324 -> 325 ;
326 [label="entropy = 0.0\nsamples = 2\nvalue = [3, 0]\nclass = g", fillcolor="#e58139"] ;
324 -> 326 ;
327 [label="present_residence_since <= 2.5\nentropy = 0.96\nsamples = 80\nvalue = [49, 77]\nclass = o", fillcolor="#b7dbf6"] ;
287 -> 327 ;
328 [label="credits <= 1.5\nentropy = 0.99\nsamples = 44\nvalue = [41, 31]\nclass = g", fillcolor="#f9e0cf"] ;
327 -> 328 ;
329 [label="job <= 172.5\nentropy = 0.97\nsamples = 23\nvalue = [15, 22]\nclass = o", fillcolor="#c0e0f7"] ;
328 -> 329 ;
330 [label="entropy = 0.0\nsamples = 4\nvalue = [8, 0]\nclass = g", fillcolor="#e58139"] ;
329 -> 330 ;
331 [label="credit_amount <= 1656.5\nentropy = 0.8\nsamples = 19\nvalue = [7, 22]\nclass = o", fillcolor="#78bced"] ;
329 -> 331 ;
332 [label="entropy = 0.0\nsamples = 5\nvalue = [0, 7]\nclass = o", fillcolor="#399de5"] ;
331 -> 332 ;
333 [label="savings_account <= 62.0\nentropy = 0.9\nsamples = 14\nvalue = [7, 15]\nclass = o", fillcolor="#95cbf1"] ;
331 -> 333 ;
334 [label="purpose <= 46.0\nentropy = 0.99\nsamples = 10\nvalue = [7, 9]\nclass = o", fillcolor="#d3e9f9"] ;
333 -> 334 ;
335 [label="present_residence_since <= 1.5\nentropy = 0.72\nsamples = 6\nvalue = [2, 8]\nclass = o", fillcolor="#6ab6ec"] ;
334 -> 335 ;
336 [label="personal_status_sex <= 92.5\nentropy = 0.92\nsamples = 2\nvalue = [2, 1]\nclass = g", fillcolor="#f2c09c"] ;
335 -> 336 ;
337 [label="entropy = 0.0\nsamples = 1\nvalue = [2, 0]\nclass = g", fillcolor="#e58139"] ;
336 -> 337 ;
338 [label="entropy = 0.0\nsamples = 1\nvalue = [0, 1]\nclass = o", fillcolor="#399de5"] ;
336 -> 338 ;
339 [label="entropy = 0.0\nsamples = 4\nvalue = [0, 7]\nclass = o", fillcolor="#399de5"] ;
335 -> 339 ;
340 [label="unemployed <= 72.0\nentropy = 0.65\nsamples = 4\nvalue = [5, 1]\nclass = g", fillcolor="#ea9a61"] ;
334 -> 340 ;
341 [label="entropy = 0.0\nsamples = 2\nvalue = [3, 0]\nclass = g", fillcolor="#e58139"] ;
340 -> 341 ;
342 [label="age <= 51.0\nentropy = 0.92\nsamples = 2\nvalue = [2, 1]\nclass = g", fillcolor="#f2c09c"] ;
340 -> 342 ;
343 [label="entropy = 0.0\nsamples = 1\nvalue = [2, 0]\nclass = g", fillcolor="#e58139"] ;
342 -> 343 ;
344 [label="entropy = 0.0\nsamples = 1\nvalue = [0, 1]\nclass = o", fillcolor="#399de5"] ;
342 -> 344 ;
345 [label="entropy = 0.0\nsamples = 4\nvalue = [0, 6]\nclass = o", fillcolor="#399de5"] ;
333 -> 345 ;
346 [label="personal_status_sex <= 91.5\nentropy = 0.82\nsamples = 21\nvalue = [26, 9]\nclass = g", fillcolor="#eead7e"] ;
328 -> 346 ;
347 [label="entropy = 0.0\nsamples = 2\nvalue = [2, 0]\nclass = g", fillcolor="#e58139"] ;
346 -> 347 ;
348 [label="present_residence_since <= 1.5\nentropy = 0.85\nsamples = 19\nvalue = [24, 9]\nclass = g", fillcolor="#efb083"] ;
346 -> 348 ;
349 [label="entropy = 0.0\nsamples = 2\nvalue = [0, 2]\nclass = o", fillcolor="#399de5"] ;
348 -> 349 ;
350 [label="age <= 40.0\nentropy = 0.77\nsamples = 17\nvalue = [24, 7]\nclass = g", fillcolor="#eda673"] ;
348 -> 350 ;
351 [label="purpose <= 40.5\nentropy = 0.59\nsamples = 15\nvalue = [24, 4]\nclass = g", fillcolor="#e9965a"] ;
350 -> 351 ;
352 [label="entropy = 0.0\nsamples = 6\nvalue = [14, 0]\nclass = g", fillcolor="#e58139"] ;
351 -> 352 ;
353 [label="purpose <= 41.5\nentropy = 0.86\nsamples = 9\nvalue = [10, 4]\nclass = g", fillcolor="#efb388"] ;
351 -> 353 ;
354 [label="entropy = 0.0\nsamples = 1\nvalue = [0, 1]\nclass = o", fillcolor="#399de5"] ;
353 -> 354 ;
355 [label="age <= 31.5\nentropy = 0.78\nsamples = 8\nvalue = [10, 3]\nclass = g", fillcolor="#eda774"] ;
353 -> 355 ;
356 [label="duration <= 34.5\nentropy = 1.0\nsamples = 5\nvalue = [3, 3]\nclass = g", fillcolor="#ffffff"] ;
355 -> 356 ;
357 [label="entropy = 0.0\nsamples = 2\nvalue = [0, 2]\nclass = o", fillcolor="#399de5"] ;
356 -> 357 ;
358 [label="unemployed <= 72.0\nentropy = 0.81\nsamples = 3\nvalue = [3, 1]\nclass = g", fillcolor="#eeab7b"] ;
356 -> 358 ;
359 [label="entropy = 0.0\nsamples = 1\nvalue = [1, 0]\nclass = g", fillcolor="#e58139"] ;
358 -> 359 ;
360 [label="job <= 173.5\nentropy = 0.92\nsamples = 2\nvalue = [2, 1]\nclass = g", fillcolor="#f2c09c"] ;
358 -> 360 ;
361 [label="entropy = 0.0\nsamples = 1\nvalue = [0, 1]\nclass = o", fillcolor="#399de5"] ;
360 -> 361 ;
362 [label="entropy = 0.0\nsamples = 1\nvalue = [2, 0]\nclass = g", fillcolor="#e58139"] ;
360 -> 362 ;
363 [label="entropy = 0.0\nsamples = 3\nvalue = [7, 0]\nclass = g", fillcolor="#e58139"] ;
355 -> 363 ;
364 [label="entropy = 0.0\nsamples = 2\nvalue = [0, 3]\nclass = o", fillcolor="#399de5"] ;
350 -> 364 ;
365 [label="installment_rate <= 2.5\nentropy = 0.61\nsamples = 36\nvalue = [8, 46]\nclass = o", fillcolor="#5baeea"] ;
327 -> 365 ;
366 [label="telephone <= 191.5\nentropy = 0.99\nsamples = 7\nvalue = [4, 5]\nclass = o", fillcolor="#d7ebfa"] ;
365 -> 366 ;
367 [label="purpose <= 40.5\nentropy = 0.81\nsamples = 4\nvalue = [3, 1]\nclass = g", fillcolor="#eeab7b"] ;
366 -> 367 ;
368 [label="entropy = 0.0\nsamples = 1\nvalue = [0, 1]\nclass = o", fillcolor="#399de5"] ;
367 -> 368 ;
369 [label="entropy = 0.0\nsamples = 3\nvalue = [3, 0]\nclass = g", fillcolor="#e58139"] ;
367 -> 369 ;
370 [label="purpose <= 40.5\nentropy = 0.72\nsamples = 3\nvalue = [1, 4]\nclass = o", fillcolor="#6ab6ec"] ;
366 -> 370 ;
371 [label="entropy = 0.0\nsamples = 1\nvalue = [1, 0]\nclass = g", fillcolor="#e58139"] ;
370 -> 371 ;
372 [label="entropy = 0.0\nsamples = 2\nvalue = [0, 4]\nclass = o", fillcolor="#399de5"] ;
370 -> 372 ;
373 [label="other_installment_plans <= 142.5\nentropy = 0.43\nsamples = 29\nvalue = [4, 41]\nclass = o", fillcolor="#4ca7e8"] ;
365 -> 373 ;
374 [label="housing <= 152.5\nentropy = 0.86\nsamples = 5\nvalue = [2, 5]\nclass = o", fillcolor="#88c4ef"] ;
373 -> 374 ;
375 [label="entropy = 0.0\nsamples = 3\nvalue = [0, 4]\nclass = o", fillcolor="#399de5"] ;
374 -> 375 ;
376 [label="credits <= 1.5\nentropy = 0.92\nsamples = 2\nvalue = [2, 1]\nclass = g", fillcolor="#f2c09c"] ;
374 -> 376 ;
377 [label="entropy = 0.0\nsamples = 1\nvalue = [2, 0]\nclass = g", fillcolor="#e58139"] ;
376 -> 377 ;
378 [label="entropy = 0.0\nsamples = 1\nvalue = [0, 1]\nclass = o", fillcolor="#399de5"] ;
376 -> 378 ;
379 [label="savings_account <= 61.5\nentropy = 0.3\nsamples = 24\nvalue = [2, 36]\nclass = o", fillcolor="#44a2e6"] ;
373 -> 379 ;
380 [label="property <= 123.5\nentropy = 0.37\nsamples = 17\nvalue = [2, 26]\nclass = o", fillcolor="#48a5e7"] ;
379 -> 380 ;
381 [label="installment_rate <= 3.5\nentropy = 0.43\nsamples = 14\nvalue = [2, 21]\nclass = o", fillcolor="#4ca6e7"] ;
380 -> 381 ;
382 [label="entropy = 0.0\nsamples = 4\nvalue = [0, 7]\nclass = o", fillcolor="#399de5"] ;
381 -> 382 ;
383 [label="present_residence_since <= 3.5\nentropy = 0.54\nsamples = 10\nvalue = [2, 14]\nclass = o", fillcolor="#55abe9"] ;
381 -> 383 ;
384 [label="entropy = 0.0\nsamples = 2\nvalue = [0, 4]\nclass = o", fillcolor="#399de5"] ;
383 -> 384 ;
385 [label="telephone <= 191.5\nentropy = 0.65\nsamples = 8\nvalue = [2, 10]\nclass = o", fillcolor="#61b1ea"] ;
383 -> 385 ;
386 [label="age <= 28.5\nentropy = 0.92\nsamples = 3\nvalue = [2, 1]\nclass = g", fillcolor="#f2c09c"] ;
385 -> 386 ;
387 [label="entropy = 0.0\nsamples = 1\nvalue = [1, 0]\nclass = g", fillcolor="#e58139"] ;
386 -> 387 ;
388 [label="age <= 40.5\nentropy = 1.0\nsamples = 2\nvalue = [1, 1]\nclass = g", fillcolor="#ffffff"] ;
386 -> 388 ;
389 [label="entropy = 0.0\nsamples = 1\nvalue = [0, 1]\nclass = o", fillcolor="#399de5"] ;
388 -> 389 ;
390 [label="entropy = 0.0\nsamples = 1\nvalue = [1, 0]\nclass = g", fillcolor="#e58139"] ;
388 -> 390 ;
391 [label="entropy = 0.0\nsamples = 5\nvalue = [0, 9]\nclass = o", fillcolor="#399de5"] ;
385 -> 391 ;
392 [label="entropy = 0.0\nsamples = 3\nvalue = [0, 5]\nclass = o", fillcolor="#399de5"] ;
380 -> 392 ;
393 [label="entropy = 0.0\nsamples = 7\nvalue = [0, 10]\nclass = o", fillcolor="#399de5"] ;
379 -> 393 ;
394 [label="job <= 173.5\nentropy = 0.53\nsamples = 65\nvalue = [13, 95]\nclass = o", fillcolor="#54aae9"] ;
286 -> 394 ;
395 [label="credit_history <= 32.5\nentropy = 0.25\nsamples = 56\nvalue = [4, 90]\nclass = o", fillcolor="#42a1e6"] ;
394 -> 395 ;
396 [label="housing <= 151.5\nentropy = 0.44\nsamples = 26\nvalue = [4, 40]\nclass = o", fillcolor="#4da7e8"] ;
395 -> 396 ;
397 [label="entropy = 0.0\nsamples = 8\nvalue = [0, 13]\nclass = o", fillcolor="#399de5"] ;
396 -> 397 ;
398 [label="debtors/guarantors <= 102.5\nentropy = 0.55\nsamples = 18\nvalue = [4, 27]\nclass = o", fillcolor="#56ace9"] ;
396 -> 398 ;
399 [label="installment_rate <= 1.5\nentropy = 0.36\nsamples = 17\nvalue = [2, 27]\nclass = o", fillcolor="#48a4e7"] ;
398 -> 399 ;
400 [label="entropy = 0.0\nsamples = 1\nvalue = [2, 0]\nclass = g", fillcolor="#e58139"] ;
399 -> 400 ;
401 [label="entropy = 0.0\nsamples = 16\nvalue = [0, 27]\nclass = o", fillcolor="#399de5"] ;
399 -> 401 ;
402 [label="entropy = 0.0\nsamples = 1\nvalue = [2, 0]\nclass = g", fillcolor="#e58139"] ;
398 -> 402 ;
403 [label="entropy = 0.0\nsamples = 30\nvalue = [0, 50]\nclass = o", fillcolor="#399de5"] ;
395 -> 403 ;
404 [label="credit_history <= 32.5\nentropy = 0.94\nsamples = 9\nvalue = [9, 5]\nclass = g", fillcolor="#f3c7a7"] ;
394 -> 404 ;
405 [label="purpose <= 40.5\nentropy = 0.68\nsamples = 6\nvalue = [9, 2]\nclass = g", fillcolor="#eb9d65"] ;
404 -> 405 ;
406 [label="entropy = 0.0\nsamples = 2\nvalue = [0, 2]\nclass = o", fillcolor="#399de5"] ;
405 -> 406 ;
407 [label="entropy = 0.0\nsamples = 4\nvalue = [9, 0]\nclass = g", fillcolor="#e58139"] ;
405 -> 407 ;
408 [label="entropy = 0.0\nsamples = 3\nvalue = [0, 3]\nclass = o", fillcolor="#399de5"] ;
404 -> 408 ;
}